%YAML:1.0
---
myHogDector3: !!opencv-object-detector-hog
   winSize: [ 64, 128 ]
   blockSize: [ 16, 16 ]
   blockStride: [ 8, 8 ]
   cellSize: [ 8, 8 ]
   nbins: 9
   derivAperture: 1
   winSigma: 4.
   histogramNormType: 0
   L2HysThreshold: 2.0000000000000001e-01
   gammaCorrection: 1
   nlevels: 64
   signedGradient: 0
   SVMDetector: [ 2.68760845e-02, -1.33736758e-02, -7.06584367e-04,
       2.70942468e-02, 1.72969289e-02, -3.50244157e-03, -2.96350624e-02,
       -1.75848212e-02, 4.14123423e-02, 2.09830441e-02, -1.13196773e-02,
       -5.70176309e-03, -1.19668311e-02, -2.42878515e-02, 8.13729316e-03,
       -1.24168419e-03, 2.67408583e-02, 2.90966649e-02, 4.04600054e-02,
       -1.98836941e-02, 6.71512447e-03, 2.15261597e-02, 6.99873734e-03,
       -1.01618636e-02, -4.33939211e-02, -2.54711807e-02, 8.39925837e-03,
       4.31265533e-02, -1.93532091e-03, 2.17442960e-02, 3.10713978e-04,
       -2.87379827e-02, 1.29928757e-02, -3.53588462e-02, 1.02568036e-02,
       2.71768179e-02, 4.07349289e-05, -1.99391376e-02, 7.76455039e-03,
       -5.75530063e-03, -4.16632276e-03, -1.45959444e-02,
       -8.24281666e-03, 2.21711323e-02, 2.51536816e-02, -3.68199940e-03,
       -1.41478898e-02, 2.59465482e-02, 1.93198733e-02, 1.91369262e-02,
       5.24864206e-03, 1.68769024e-02, 2.03562547e-02, -5.87158604e-03,
       1.55912098e-02, -3.74274165e-03, -8.42278451e-03, 8.34123418e-03,
       1.16775110e-02, 2.59473342e-02, -2.51438972e-02, 3.84462881e-03,
       2.74914335e-02, -1.62551366e-02, -9.12175793e-03, -3.02282851e-02,
       -4.29864228e-03, 9.75805707e-03, 1.80720426e-02, -1.64459106e-02,
       -1.07183843e-03, 6.82472764e-03, -5.35088358e-03, -2.00333837e-02,
       -2.38817796e-04, 4.80791088e-03, 3.76125686e-02, 3.15675624e-02,
       1.29911788e-02, 2.17430666e-02, -1.16158286e-02, 6.54502213e-03,
       -3.16998595e-03, 4.03171219e-03, -2.35279812e-03, -8.77868943e-03,
       2.15533655e-03, -1.06184203e-02, 3.49584557e-02, 1.93302818e-02,
       -2.11354420e-02, -1.59383751e-04, -8.58492870e-03, 4.58443165e-03,
       2.15224531e-02, 1.52943581e-02, 7.25506432e-03, 2.72146203e-02,
       -1.16347093e-02, -1.62772294e-02, -1.94330346e-02,
       -3.03929653e-02, -2.57489905e-02, -6.46650558e-03, 1.14349760e-02,
       -5.45215001e-03, 3.56405079e-02, -1.48957055e-02, -1.38539111e-03,
       1.67099983e-02, -8.96910578e-03, -1.46657489e-02, -3.41372490e-02,
       -3.42569407e-03, -1.15306443e-02, -6.11064024e-04,
       -4.55812039e-03, 8.79407208e-03, 2.17968617e-02, -1.00131761e-02,
       -5.56896953e-03, -4.05286811e-03, 2.02059327e-03, 2.76059322e-02,
       -2.01408267e-02, -2.73260418e-02, -2.15016715e-02, 2.11608149e-02,
       2.46834871e-03, -8.65754485e-03, -4.21693698e-02, 2.16146316e-02,
       1.66008819e-03, 2.34939735e-02, 2.80552637e-03, -3.86116318e-02,
       1.25836246e-02, 1.57483772e-03, -1.23829243e-03, -1.33819124e-02,
       -9.39379167e-03, -5.45611465e-03, -2.20320728e-02,
       -1.93223730e-02, -6.57993089e-03, 3.25430147e-02, -3.38681638e-02,
       -6.56111119e-03, -7.38498149e-03, -1.26705719e-02, 1.23079568e-02,
       1.54205654e-02, -1.76395178e-02, -1.40797608e-02, -3.69392894e-02,
       -6.54164851e-02, 2.55521591e-04, 3.73842865e-02, -2.05626301e-02,
       -2.79169362e-02, 1.15439817e-02, -7.89421611e-03, 1.59486802e-03,
       4.38518412e-02, -3.25954170e-03, -2.96690431e-03, 2.44689938e-02,
       -8.15975852e-03, 3.07878219e-02, 2.72097439e-02, -4.92645707e-03,
       -2.49135718e-02, -5.95180131e-03, -3.03669181e-02,
       -1.17912712e-02, 1.17916586e-02, 7.07686413e-04, -9.64787207e-04,
       -7.35249743e-03, -3.05963047e-02, -1.66954771e-02,
       -4.49850895e-02, -5.86272962e-02, 1.67517811e-02, 3.29257920e-02,
       -3.32698971e-03, -9.84945893e-03, 2.76878104e-02, 4.08539595e-03,
       -1.77513575e-03, -3.81039269e-02, -1.54752638e-02, 1.07710641e-02,
       -1.19612487e-02, -3.21950838e-02, -1.28959166e-02,
       -1.77857522e-02, -9.64974239e-03, 1.15238642e-02, -2.45545874e-03,
       -2.01899633e-02, 2.40068417e-02, 6.79840287e-03, 9.70623735e-03,
       -2.22939290e-02, 3.08156051e-02, -1.74311921e-02, -1.83512717e-02,
       1.52045423e-02, -6.30943058e-03, 4.24897112e-03, -1.18160127e-02,
       -2.72022113e-02, -9.13174264e-03, -2.02812091e-03,
       -3.04572447e-03, -9.97758284e-03, -1.25261387e-02,
       -8.21841473e-04, 4.50542867e-02, -1.35657389e-03, 3.55523103e-03,
       -1.41792512e-03, -5.08004008e-03, 1.52735589e-02, -9.70146060e-03,
       -1.86822731e-02, -1.39790419e-02, 1.35495663e-02, -2.61973310e-02,
       -3.20265128e-04, -1.99476294e-02, 1.26571441e-02, 1.48093263e-02,
       -1.38450721e-02, -3.21754394e-03, -1.01648225e-02, 1.96820833e-02,
       8.72641522e-03, 2.82730628e-02, 2.47236323e-02, 1.13625545e-02,
       1.08277407e-02, -1.29107386e-02, -2.24100295e-02, 1.54321706e-02,
       -9.98484530e-03, 1.30771128e-02, 4.45524231e-03, -3.12129632e-02,
       1.21075148e-03, 1.91991199e-02, -7.05101108e-03, -3.13999713e-03,
       -1.86714567e-02, -5.27361699e-04, 7.25743966e-03, 5.13940258e-03,
       -9.71083902e-03, 3.07898428e-02, -3.80370067e-03, -6.23028120e-03,
       -1.04455072e-02, 5.84331527e-03, 6.20727520e-03, -9.00100742e-04,
       2.39265002e-02, 1.18204858e-02, 1.86986476e-02, -4.91073215e-03,
       6.14953740e-03, -5.57538169e-03, -1.99757069e-02, 5.66319097e-03,
       2.96986904e-02, 8.17568507e-03, -6.96877018e-03, 2.78344732e-02,
       2.92223860e-02, -2.42513772e-02, -7.88258202e-03, -1.15633588e-02,
       -9.39727295e-03, 7.13785645e-03, -1.30139291e-02, 3.22189461e-03,
       1.86820570e-02, -1.36064123e-02, -2.65595224e-02, -6.16003945e-03,
       4.24327999e-02, 4.91928197e-02, -2.11103782e-02, 2.73052864e-02,
       3.29678506e-02, 2.08337959e-02, 1.88288204e-02, -2.22353991e-02,
       -1.09806433e-02, 7.58151943e-03, 2.97874995e-02, -2.20720861e-02,
       -8.87296349e-03, 6.59039617e-03, 4.07718075e-03, -6.39699260e-03,
       -1.14614191e-02, 3.13377450e-03, 2.09238548e-02, -2.27746158e-03,
       -1.95463095e-02, 9.75348242e-03, 2.07293648e-02, 3.78817022e-02,
       2.95519102e-02, -1.26333116e-02, -1.88835468e-02, 9.23026074e-03,
       6.38121692e-03, 4.86495905e-04, 5.97658614e-03, -1.81966126e-02,
       -2.02410668e-02, -3.73709411e-03, -1.23395976e-02,
       -5.48688695e-03, -1.82601307e-02, 1.03731053e-02, -1.01436246e-02,
       5.05819800e-04, -1.21237077e-02, -1.02436841e-02, 2.80818865e-02,
       -1.42258648e-02, -3.16819362e-02, -5.59963509e-02,
       -1.41593367e-02, -2.13986452e-04, 3.39016831e-03, -3.70990764e-03,
       -3.31771076e-02, 1.09776040e-03, 2.01901328e-02, 3.65188383e-02,
       2.13076640e-02, 1.89540125e-02, 1.02094980e-02, 1.77112594e-02,
       -6.32705493e-03, 1.66764390e-03, 9.71517246e-03, 1.02816969e-02,
       1.30505851e-02, -2.37697326e-02, 3.32138725e-02, 1.57521032e-02,
       6.83982018e-03, -1.27625801e-02, 1.56060455e-03, 1.66220926e-02,
       -1.59262829e-02, -1.23522046e-03, -1.36101823e-02, 1.05299726e-02,
       1.80665182e-03, -2.60887388e-03, -4.49525611e-03, -1.62646975e-02,
       -1.28918411e-02, -3.25335711e-02, 2.55908864e-03, 3.48325074e-03,
       -7.36015756e-03, -4.17871252e-02, -1.30768726e-02,
       -2.47767959e-02, -1.02293631e-02, -2.79006325e-02, 1.23036522e-02,
       -1.66607229e-03, 1.87728070e-02, 2.19158605e-02, 2.33187377e-02,
       2.27231183e-03, -5.59614925e-03, 2.07281914e-02, 7.37704663e-03,
       -1.16460826e-02, -1.65971760e-02, -6.42206706e-03, 2.16838978e-02,
       1.99013893e-02, -8.39235820e-03, 1.24012213e-02, 1.19832559e-02,
       -9.19596106e-03, -1.99934468e-02, -8.66774097e-03,
       -4.53335745e-03, 2.45187040e-02, -8.05368088e-03, 1.41541064e-02,
       -9.06341895e-03, 1.54761877e-02, 3.11382134e-02, -1.69916567e-03,
       -2.55546998e-03, -5.43803908e-03, 5.90734603e-03, -7.32599339e-03,
       -4.47258959e-03, -9.23947804e-03, 4.67690686e-03, 3.02546360e-02,
       -2.00469159e-02, -2.59747319e-02, -1.54891899e-02, 5.58701009e-02,
       4.04305942e-02, 1.60500798e-02, 7.51957996e-03, 8.07775091e-03,
       1.04997670e-02, -3.92265804e-02, -3.22835445e-02, -9.51300084e-04,
       2.15362106e-02, -2.58560814e-02, 5.71150612e-03, -1.81988589e-02,
       -1.80509500e-02, -1.75590739e-02, -1.82926357e-02, 4.26503597e-04,
       1.56166600e-02, 3.64136994e-02, 3.30016166e-02, 2.17766128e-02,
       9.78484936e-03, -4.15411079e-03, 7.83186033e-03, -3.83928083e-02,
       -2.94092838e-02, -3.26071493e-03, -2.24252604e-02, 1.92425251e-02,
       -1.34008676e-02, 9.87350824e-04, 4.88196360e-03, 2.74771824e-03,
       7.72227475e-04, 1.54353874e-02, 2.77630258e-02, 2.86571160e-02,
       -1.15127968e-05, 2.57513318e-02, 2.64667775e-02, 1.67842098e-02,
       -1.15986113e-02, 7.40109477e-03, 6.14240626e-03, 3.01806517e-02,
       -2.68296134e-02, 1.63664445e-02, 4.73205792e-03, 1.73555035e-03,
       -8.43994610e-04, 3.80257703e-03, -3.58394682e-02, 2.30232924e-02,
       6.84383959e-02, 6.40055351e-03, -8.85519013e-03, -3.99916135e-02,
       -3.12342215e-02, 2.38241199e-02, 5.28150471e-03, -3.52630727e-02,
       -5.58383670e-03, 1.20895822e-02, -3.03419195e-02, 1.24794943e-02,
       3.66776157e-03, -4.18616198e-02, -3.02977860e-02, -6.23479392e-03,
       1.17057245e-02, 2.51462497e-02, 4.44065817e-02, -8.47244519e-04,
       -1.62634254e-02, 3.19024106e-03, -7.77956611e-03, -1.28100486e-02,
       3.95714827e-02, -1.78316534e-02, -3.65744606e-02, 1.40346568e-02,
       -3.80655425e-03, 3.19770984e-02, 1.27639454e-02, -1.32816494e-03,
       -3.74035537e-02, 2.28562094e-02, 2.48819143e-02, -6.90879242e-04,
       -2.51318533e-02, -9.52896476e-03, -2.63366085e-02, 2.67630834e-02,
       8.56079720e-03, -1.99941341e-02, 7.80371390e-03, 1.53629174e-02,
       -1.60619318e-02, -7.17842625e-03, 2.66884156e-02, -3.77726555e-02,
       7.11150980e-03, 3.08206305e-03, -2.10949518e-02, -2.67795054e-03,
       1.58616863e-02, -5.37777208e-02, -1.84642710e-03, 1.01522636e-02,
       -5.08919917e-03, 2.34856848e-02, 1.70613304e-02, -1.52940862e-02,
       4.38769162e-02, 3.09816748e-02, -3.00409552e-02, -1.09230296e-03,
       -1.53066181e-02, -2.87374761e-02, 8.69709440e-03, 6.84620952e-03,
       -2.95264553e-02, 3.11795287e-02, 3.65212485e-02, -4.03251424e-02,
       -2.19755024e-02, 1.95709113e-02, 2.47020368e-02, 1.02960989e-02,
       -4.25785407e-02, -2.76917350e-02, 7.82370474e-03, 3.30265984e-02,
       -8.91919062e-03, 1.07903890e-02, 2.13698484e-02, 3.46362926e-02,
       2.23495495e-02, -9.63050406e-03, 2.11330671e-02, 2.69997176e-02,
       -1.36773393e-03, -6.14840202e-02, -3.20073031e-02, 3.02704480e-02,
       -9.75152012e-03, 1.49329165e-02, -1.61184371e-02, -6.31873263e-03,
       1.08890822e-02, -3.58884479e-03, -2.44356655e-02, 1.09280823e-04,
       5.42166503e-03, -3.22244316e-02, 1.93853155e-02, 2.24512033e-02,
       1.22155342e-02, 6.54185982e-03, -1.60590711e-03, -1.98507030e-02,
       -1.55502865e-02, -2.64646672e-02, 2.27540135e-02, 2.64760982e-02,
       -3.14250290e-02, -4.62527038e-04, 2.11326964e-02, 3.91342817e-03,
       -2.32448964e-03, -2.29228642e-02, -2.03350969e-02,
       -2.36704871e-02, 1.69595461e-02, -1.42319519e-02, 6.74747257e-03,
       3.32698263e-02, 2.45798901e-02, -5.00177266e-03, 3.83053347e-02,
       2.07827325e-04, 3.66462357e-02, 3.67824547e-02, -1.14064207e-02,
       -5.27668335e-02, -3.56418639e-03, 5.47130667e-02, -2.17339001e-03,
       3.49072628e-02, -1.09908292e-02, -3.89845297e-02, 6.02188101e-03,
       -3.43207881e-04, -2.99010053e-02, 1.38498247e-02, -6.62078988e-03,
       7.47362617e-03, 2.29511154e-03, -1.20568145e-02, 2.44296249e-03,
       -2.01444291e-02, -6.06290624e-03, 1.35091983e-03, -8.24709889e-03,
       -1.52799850e-02, 1.06006768e-02, 2.13749707e-02, 1.23663209e-02,
       1.19814128e-02, 1.37979649e-02, 1.94738600e-02, 3.59675661e-02,
       -2.01061387e-02, 4.20996435e-02, -7.86626432e-03, 5.64794336e-03,
       -1.74327828e-02, 1.10224327e-02, 1.21459449e-02, 1.30091561e-02,
       1.08855506e-02, 3.28464024e-02, -2.73039397e-02, -1.09893084e-02,
       -2.17658803e-02, -1.00155836e-02, 1.01181790e-02, 2.01933179e-02,
       3.09459046e-02, 2.17839405e-02, -1.26551138e-02, -2.92747039e-02,
       -2.10976251e-03, 1.39925545e-02, -2.01826300e-02, -2.88445037e-02,
       1.35598902e-03, -2.71046278e-03, 1.06501831e-02, -1.12154344e-02,
       4.13416140e-03, 3.04035936e-02, -3.02553154e-03, -3.16758901e-02,
       2.04983950e-02, -4.89112688e-03, -3.30546126e-02, -3.74725312e-02,
       -3.56955174e-03, -2.31549535e-02, 2.01762207e-02, 3.83002497e-02,
       2.58633997e-02, -8.59206833e-04, -4.24065208e-03, 1.51505079e-02,
       2.44541820e-02, 7.91100319e-03, -7.47220637e-03, 3.81388776e-02,
       2.07810923e-02, -2.04612315e-02, 3.27030495e-02, -3.43806893e-02,
       -3.72502655e-02, -2.87139677e-02, 1.13491956e-02, 2.38458999e-02,
       5.23393266e-02, 1.55857846e-03, -4.49927934e-02, 8.45198054e-03,
       -1.97790116e-02, -1.44939544e-02, -8.05061019e-04, 3.29848728e-03,
       1.48540260e-02, 3.36084850e-02, -3.49591263e-02, -6.18690029e-02,
       1.47961983e-02, -1.32456180e-02, -6.35754550e-03, -1.44549329e-02,
       -2.35385150e-02, 5.82923554e-02, 8.12030062e-02, 1.10601373e-02,
       -3.37252840e-02, 2.03161431e-03, -2.91629415e-02, -1.00022135e-02,
       1.00976191e-02, 9.53528751e-03, 2.07038410e-02, 4.77378406e-02,
       -4.09362912e-02, -1.24953361e-02, 4.21478786e-02, -2.04853974e-02,
       8.30394961e-03, -3.44885550e-02, -3.42582837e-02, 4.51652966e-02,
       4.64837700e-02, 6.35146117e-03, -1.43350903e-02, 3.30282701e-03,
       1.92660792e-03, -4.77509428e-04, 1.87000949e-02, 2.25626901e-02,
       4.64355061e-03, 3.14278761e-03, 1.03316779e-04, 5.97525667e-03,
       -2.97091343e-03, -3.05814650e-02, -5.58014400e-03, 3.08815483e-02,
       -8.02636426e-03, 1.64964814e-02, 5.74532673e-02, 9.97724291e-03,
       9.99372452e-03, -6.96978997e-03, 1.07557839e-02, 1.31216915e-02,
       1.04676588e-02, -8.55079945e-03, 7.02941278e-03, 2.55776308e-02,
       -5.94148226e-03, -6.98285270e-03, -7.36926589e-03,
       -1.07296426e-02, -1.55183102e-03, 1.41944299e-02, -1.85857143e-03,
       1.04525387e-02, -5.66561380e-03, -2.41451594e-03, 2.29268684e-03,
       1.50033040e-02, -1.01594673e-03, 3.77823802e-04, 1.48414550e-02,
       1.25543997e-02, 1.46283079e-02, 3.55955050e-03, 2.39079632e-02,
       -3.06751169e-02, 2.14565638e-02, -2.66736764e-02, -1.18144117e-02,
       1.47125358e-02, 1.36785097e-02, 6.13409504e-02, 7.51498938e-02,
       -1.16266694e-03, 2.63288934e-02, -7.93232769e-03, 1.47799179e-02,
       -5.04073827e-03, 7.47996941e-03, 1.77565422e-02, 2.59019043e-02,
       3.56861390e-02, -1.25394324e-02, -1.21295489e-02, 2.42809150e-02,
       -7.25737261e-03, 1.89337488e-02, 3.22373025e-03, -1.29281245e-02,
       1.27976658e-02, -2.32710969e-02, -1.23035079e-02, -5.99094201e-03,
       -1.14683947e-02, -1.57412160e-02, -1.55774718e-02, 1.78587157e-02,
       2.37093866e-02, -8.31697322e-03, -2.80457046e-02, -4.18357998e-02,
       -2.09092144e-02, 2.78714653e-02, -5.41564962e-03, 1.12771720e-03,
       -2.93345866e-03, 1.56762749e-02, 4.24596742e-02, 3.45238671e-02,
       -1.45042893e-02, 8.43186863e-03, 6.73486525e-03, 2.26080958e-02,
       1.60317635e-03, 5.15853241e-03, 4.96333605e-03, 1.43017396e-02,
       3.63555737e-02, -1.95798781e-02, -6.45752251e-03, 2.95269154e-02,
       2.59840842e-02, -1.57663506e-02, -1.24135138e-02, 4.03150283e-02,
       -6.20464887e-03, -8.04842822e-03, -2.92307306e-02,
       -5.97390672e-03, 1.53934406e-02, 6.02945220e-03, -3.39511596e-02,
       4.79592709e-03, 3.44756804e-02, 7.04479311e-03, -1.36178704e-02,
       -1.51609201e-02, -2.22339667e-03, 1.88922845e-02, 1.73161668e-03,
       -3.90934460e-02, -9.85774584e-03, -6.85823243e-03, 8.90161190e-03,
       2.88954489e-02, -1.21291066e-02, 2.02597920e-02, 4.75693680e-02,
       5.64451665e-02, 1.03243219e-03, 5.77342045e-03, 5.05879708e-03,
       1.02654099e-03, -6.31081872e-03, -4.12431452e-03, 2.10553333e-02,
       1.63886100e-02, 9.89904627e-03, -2.94153430e-02, 3.01099685e-03,
       -1.21492939e-02, -1.21142799e-02, 1.79480184e-02, -9.19635117e-04,
       -2.15820642e-03, -2.39948630e-02, 4.95257089e-03, -3.09882965e-02,
       -9.07598250e-03, -1.95060857e-02, -4.22389247e-03, 1.30317090e-02,
       -1.35401813e-02, 1.12901686e-03, -2.15245355e-02, 3.36703699e-04,
       -2.45371945e-02, 1.33090746e-03, -2.27544513e-02, 2.98903938e-02,
       3.03597040e-02, -4.63675661e-03, 3.03571783e-02, 2.73699723e-02,
       2.26212293e-02, -1.77139211e-02, 6.55516982e-03, -2.55842227e-02,
       3.04624578e-03, 2.00329330e-02, -1.92522611e-02, 9.75889433e-03,
       -1.55043164e-02, 5.62310265e-03, -2.06518583e-02, -1.56879891e-03,
       8.68083851e-04, -2.98337135e-02, 1.35093192e-02, 1.05505195e-02,
       -1.02718351e-02, 5.09572029e-03, -1.28959329e-03, -2.42858529e-02,
       9.59571358e-03, -2.60201935e-02, -5.18103763e-02, -1.41048273e-02,
       2.60044332e-03, 1.28582856e-02, -1.59408450e-02, -3.88159277e-03,
       -1.80778839e-02, -6.74326345e-03, -3.27471159e-02, 1.36932475e-03,
       3.04506142e-02, -5.16737765e-03, 8.18345882e-03, 3.16069089e-02,
       7.47498358e-03, 2.30888603e-03, 3.56025212e-02, -2.63139978e-03,
       -1.40058426e-02, 2.52420660e-02, -1.20227842e-03, 1.69006232e-02,
       1.94893032e-02, 2.96538100e-02, -3.14334892e-02, -3.24486755e-03,
       -2.32432541e-02, -1.21535351e-02, -2.07611029e-05, 2.66427849e-03,
       2.41492558e-02, -1.28392689e-02, -1.06809102e-02, -2.16679052e-02,
       -1.55062461e-02, 6.96448004e-03, -1.16152251e-02, 7.33113987e-03,
       -6.91511028e-04, -2.90554911e-02, -6.60984069e-02,
       -4.65284362e-02, -1.63569525e-02, 5.31071983e-03, -1.93437953e-02,
       2.16106605e-02, 4.51775156e-02, 9.07070562e-03, 1.14737162e-02,
       3.53704356e-02, 2.33092122e-02, -2.58999579e-02, -1.53936939e-02,
       -1.85743924e-02, 1.12336474e-02, 3.62455249e-02, 1.08995021e-03,
       -1.79304704e-02, 2.42980868e-02, 5.72631543e-04, -2.51100473e-02,
       3.46624199e-03, -7.57783838e-03, -1.46481330e-02, -9.59991012e-04,
       -3.12632555e-03, -2.09064130e-02, -6.09669127e-02,
       -2.72354390e-02, -1.04539683e-02, 2.38653533e-02, -2.01045424e-02,
       -3.31067778e-02, -3.55255865e-02, -2.10644919e-02,
       -4.05049548e-02, -3.37593667e-02, -2.71780565e-02,
       -3.08286808e-02, -1.50343115e-02, -2.68786028e-02, 1.80356149e-02,
       3.87522653e-02, 2.46146619e-02, 1.42467953e-02, 6.60180598e-02,
       9.29058567e-02, 2.50792205e-02, 4.97289523e-02, 1.72154177e-02,
       -3.30850179e-03, 3.62910726e-03, 6.09582104e-03, -9.50770173e-03,
       3.82209420e-02, 2.19823457e-02, 3.42393778e-02, 6.96456134e-02,
       -5.21608908e-03, -5.04470617e-03, -2.52744704e-02,
       -1.76874944e-03, -1.22611783e-02, -3.58150825e-02, 3.23387515e-03,
       1.30409682e-02, -1.98794007e-02, 1.04645053e-02, -3.62497312e-03,
       -2.82018967e-02, -7.26784160e-03, -1.90069862e-02,
       -9.22502484e-03, -2.92789973e-02, -6.77838689e-03,
       -2.78536789e-02, -3.84914078e-04, 1.69285713e-03, -2.30241399e-02,
       5.62078087e-03, 1.61327664e-02, 1.61296278e-02, 3.57487649e-02,
       5.38366660e-02, 4.57232371e-02, 1.73096526e-02, -4.66405824e-02,
       -6.21322505e-02, -1.51807070e-02, -2.46062353e-02, 1.21158706e-02,
       5.14844246e-03, 7.13959709e-03, 1.05669824e-02, -6.85423985e-03,
       1.29313292e-02, -3.39163356e-02, 1.38643878e-02, 8.79005063e-03,
       -1.29946796e-02, -2.03193212e-03, 1.24576055e-02, 1.74742695e-02,
       5.13491258e-02, 7.01393560e-03, -3.36036570e-02, -8.28122348e-03,
       8.80305655e-03, -1.40131405e-02, -3.20947766e-02, -2.37891153e-02,
       -1.01924744e-02, 3.72322872e-02, 1.54079525e-02, -1.94957778e-02,
       2.66623665e-02, 2.27094609e-02, -2.30628289e-02, 7.04044057e-03,
       2.74422467e-02, 2.20601279e-02, 3.78223136e-02, -1.77688170e-02,
       -2.10946575e-02, 7.78909074e-04, 4.70267870e-02, -6.77346485e-03,
       -3.54276504e-03, -1.31708430e-02, -4.94451523e-02,
       -5.87479817e-03, -2.41539571e-02, -3.93703654e-02,
       -1.26386881e-02, 2.62872092e-02, 2.10674312e-02, -4.60945349e-03,
       -2.41694041e-02, -1.86827593e-02, -2.28764992e-02, 9.52234492e-03,
       -1.81167293e-02, -4.79804724e-03, 1.49337677e-02, -4.97377012e-03,
       3.84985283e-03, -2.14048177e-02, -2.13446859e-02, -2.41554086e-03,
       -6.68932043e-04, -1.45130074e-02, 2.13077087e-02, 3.04362681e-02,
       -4.34433157e-03, -8.36420152e-03, -2.47464739e-02,
       -3.29063903e-03, 4.35766671e-03, 1.53877412e-03, -1.94931310e-02,
       -1.34404972e-02, 2.63740961e-02, -4.64720130e-02, 2.26612762e-02,
       -1.36351418e-02, -4.21823971e-02, 2.82230936e-02, -1.96010079e-02,
       -2.80142035e-02, 3.72910872e-02, 7.34769693e-03, 3.51678394e-02,
       -2.17711646e-02, -4.89682332e-02, -7.07684085e-02,
       -3.71419713e-02, 3.23184617e-02, 4.30493057e-02, 7.90050626e-02,
       2.91242488e-02, 1.60882678e-02, -5.12597188e-02, -5.25648035e-02,
       -4.40609008e-02, -2.23028101e-02, -8.44016951e-03,
       -2.72477907e-03, 7.96350762e-02, 8.38241205e-02, 4.91360947e-02,
       1.83813777e-02, -1.67976134e-02, -7.20193237e-02, -2.14937925e-02,
       2.21027229e-02, 7.65749365e-02, 7.98587576e-02, 9.94197503e-02,
       1.74619388e-02, -1.65252648e-02, 9.94586106e-03, -1.47073185e-02,
       -5.14247036e-03, 4.07573171e-02, -4.50959988e-03, -1.44104995e-02,
       -3.69309857e-02, 1.77422520e-02, -4.37889844e-02, -2.16507111e-02,
       9.42917075e-03, 2.78621819e-02, -2.86338441e-02, -1.47137512e-02,
       -6.06709253e-03, -1.60242934e-02, 2.44933590e-02, -4.08001691e-02,
       4.69094608e-04, 3.25661860e-02, -4.44166549e-03, 4.84294482e-02,
       4.97123823e-02, -1.36882011e-02, 4.08590352e-03, -2.39495579e-02,
       -3.55555862e-02, 1.94515474e-02, 5.85097037e-02, 8.06948841e-02,
       -3.25294733e-02, -7.35526066e-03, 5.95240761e-03, 5.78351272e-03,
       5.37381647e-03, -2.72089224e-02, 3.18037421e-02, 3.81168500e-02,
       4.79524396e-02, -1.08829960e-02, 1.04095437e-01, 1.34533748e-01,
       6.75340146e-02, -1.77782886e-02, -5.32160811e-02, -1.88886411e-02,
       3.82197485e-03, -1.41218798e-02, -2.30402928e-02, 8.59424025e-02,
       3.98468934e-02, -8.43528192e-03, 2.60764752e-02, -8.05365592e-02,
       -5.26450351e-02, -3.29551771e-02, -3.32174413e-02,
       -4.32988480e-02, 1.05502844e-01, 1.34143054e-01, 7.28170723e-02,
       -2.09050104e-02, 5.95735712e-03, 2.04367284e-02, 1.14690298e-02,
       -2.09341440e-02, -2.86497176e-02, 2.43516304e-02, 1.14817182e-02,
       -4.65291440e-02, 1.02942558e-02, -5.18220849e-02, -2.13474240e-02,
       -5.34410290e-02, -9.21850950e-02, 3.65369543e-02, 1.00899361e-01,
       3.00100110e-02, 4.92081046e-03, -3.70582975e-02, -2.86476724e-02,
       -3.44635779e-03, 1.71841513e-02, -2.12926716e-02, 7.39296200e-03,
       4.83287424e-02, -2.86620334e-02, -6.04078593e-03, -3.36169563e-02,
       -1.43698612e-02, 5.51499939e-03, -1.30180120e-02, -9.31070466e-03,
       5.10594901e-03, 4.95905206e-02, -5.94898453e-03, -5.66730276e-02,
       -6.48856238e-02, -2.20631305e-02, 4.06667823e-04, -1.16235791e-02,
       -4.88338545e-02, -5.34519507e-03, -1.56187098e-02,
       -3.12593281e-02, -3.58862020e-02, -4.13903743e-02,
       -3.93349715e-02, -2.56581288e-02, -3.77709791e-02,
       -2.04993468e-02, 3.55758443e-02, 5.13393097e-02, -1.55868977e-02,
       1.15485466e-03, -2.74040289e-02, -1.28132710e-02, -1.93309155e-03,
       5.12240594e-03, 3.07353660e-02, 1.61914453e-02, 6.11257665e-02,
       -3.56781147e-02, -4.12773015e-03, -3.88950519e-02,
       -1.37311115e-03, 3.27383378e-03, 3.06178778e-02, 5.72852092e-03,
       7.13677425e-03, 1.16784293e-02, -3.57263908e-02, -8.48608930e-03,
       -3.33900414e-02, -3.14832367e-02, -1.99149158e-02, 1.39068170e-02,
       -2.02957001e-02, -2.50761077e-04, 4.80450224e-04, -4.35797200e-02,
       -2.68836878e-02, -3.33295017e-02, -3.70127447e-02, 3.74087412e-03,
       1.91725809e-02, -1.63979735e-02, 2.90136635e-02, 9.07988101e-02,
       -1.01537369e-02, 9.46966000e-03, -3.29499617e-02, 2.52111200e-02,
       -1.40854903e-02, 2.46753488e-02, 5.04603907e-02, 4.12457474e-02,
       4.94189709e-02, -3.09273079e-02, -2.99792476e-02, 6.52042218e-04,
       4.45124460e-03, 1.37253925e-02, 3.17693036e-03, -1.10518942e-02,
       9.96773876e-03, 1.49806645e-02, -1.63675547e-02, -5.17104426e-03,
       -8.08632560e-03, 4.70474083e-03, 1.29841571e-03, 1.83599070e-03,
       2.20519304e-03, -1.57565176e-02, -1.23739485e-02, -4.42308048e-03,
       -1.12678846e-02, 2.91200522e-02, 5.53738559e-03, -2.42564324e-02,
       -3.52965929e-02, -6.72565307e-03, 6.41259402e-02, 5.24998084e-02,
       5.24480315e-03, -4.54718247e-03, -2.90740579e-02, 7.78633961e-03,
       -1.08167948e-02, -1.72058623e-02, 2.32288782e-02, 3.75431255e-02,
       5.12951352e-02, -1.00758355e-02, -2.31557507e-02, -9.90654808e-03,
       3.64031992e-03, -1.03138778e-02, 2.87141111e-02, 5.23140170e-02,
       2.42560450e-02, 3.56576219e-03, 5.22222253e-04, 9.29281523e-04,
       -1.73043907e-02, 1.52827483e-02, 3.97938187e-04, -2.93848366e-02,
       -1.09117590e-02, -5.49110956e-03, -1.53303687e-02,
       -2.27049384e-02, -3.71861011e-02, -5.45422221e-03,
       -1.85388303e-03, -4.18697763e-03, -6.49896590e-03,
       -6.72128331e-03, 2.73671970e-02, 4.28958125e-02, -1.13750063e-02,
       -3.53388004e-02, 2.27247737e-02, 4.41358872e-02, 2.71694944e-03,
       5.48553281e-02, 5.30155003e-02, 1.98475532e-02, 7.03771878e-03,
       -3.03203668e-02, -3.63881141e-02, 1.32680126e-02, 1.63343102e-02,
       -4.49625263e-03, 1.87699813e-02, 2.66197487e-03, -2.43011191e-02,
       -3.44374869e-03, -4.43643779e-02, -7.33865127e-02,
       -3.80136669e-02, 6.53938274e-04, 1.93891264e-02, 3.03225759e-02,
       6.80113444e-03, 1.18912598e-02, -1.75704435e-02, -4.87974957e-02,
       -3.83988544e-02, 3.93646769e-03, 1.42787036e-03, -3.69661525e-02,
       6.32265350e-03, 5.79302991e-03, 6.99524442e-03, 4.03260021e-03,
       -3.11354529e-02, -3.03106606e-02, -6.78926427e-03,
       -1.40603352e-02, -2.22715028e-02, -6.57145516e-04, 7.66986096e-03,
       2.71612722e-02, 1.52858440e-02, -3.30081359e-02, -4.63049188e-02,
       9.23606474e-03, -5.02161272e-02, -5.67733981e-02, -3.03669833e-02,
       1.46663114e-02, 7.40207080e-03, -1.23549032e-03, -1.78979617e-02,
       -1.23161739e-02, -6.32249117e-02, -2.62952484e-02,
       -3.32834348e-02, 1.01261567e-02, 1.22089870e-02, 5.17385360e-03,
       3.62120871e-03, -8.59072432e-03, -5.32844029e-02, -2.82914061e-02,
       -2.84136422e-02, -4.00425680e-02, -1.26430122e-02, 1.98728461e-02,
       -2.11829343e-03, 3.29733975e-02, -3.81799825e-02, -3.07456348e-02,
       -7.66623009e-04, -2.17747651e-02, -4.85061519e-02,
       -6.64824992e-03, -2.35153325e-02, 3.07348184e-03, 2.54002232e-02,
       -2.03245152e-02, -3.93621856e-03, -4.34922576e-02, 6.53972756e-03,
       -5.52463755e-02, -1.87477954e-02, -2.59070005e-02,
       -5.83375280e-04, 6.40640631e-02, -1.97140197e-03, -2.60463431e-02,
       -2.58463062e-02, -2.80832276e-02, -8.37764516e-03,
       -4.38514078e-04, 6.25991542e-03, 3.18873748e-02, 3.27803493e-02,
       -1.89154409e-02, -2.73490828e-02, -5.42553253e-02,
       -1.69626754e-02, -7.66277174e-03, 4.53929300e-04, 2.58548893e-02,
       -1.52966287e-02, 3.45784388e-02, 1.32981548e-03, -5.14631718e-03,
       -3.50412726e-02, -2.40216572e-02, -4.91244867e-02,
       -8.65677185e-03, -2.87772212e-02, 2.01061238e-02, 3.54477018e-02,
       -1.73572004e-02, -1.23964064e-02, -2.94104889e-02,
       -5.27668633e-02, -3.62236314e-02, 1.09044034e-02, 9.60488245e-03,
       3.48611474e-02, 2.30564922e-02, -4.95063551e-02, -5.12429625e-02,
       -5.63006513e-02, -5.83643131e-02, -3.09386067e-02, 1.44628054e-02,
       1.65708493e-02, 4.68023717e-02, 2.71147378e-02, -2.08152719e-02,
       -6.27201376e-03, -1.21668801e-02, -4.48262021e-02,
       -8.57610255e-03, 4.39290404e-02, 4.61835638e-02, 8.05152953e-03,
       4.97075804e-02, 1.38728367e-02, -4.50070621e-03, 1.12995051e-03,
       2.55156048e-02, 2.39525419e-02, 1.94135699e-02, 2.01012138e-02,
       -3.91640626e-02, -1.91848930e-02, 5.18486369e-03, -3.18806320e-02,
       -1.24203623e-03, -2.91562676e-02, 1.50474198e-02, -3.57061648e-03,
       -3.41883078e-02, 3.94796729e-02, 5.25441952e-02, 4.17396985e-02,
       5.17821461e-02, 3.56793916e-03, -1.75970532e-02, 1.88069008e-02,
       4.08946127e-02, 4.54610437e-02, 6.84535084e-03, 3.09994966e-02,
       4.04706225e-02, 3.09616029e-02, 6.40666625e-03, 3.82219703e-04,
       6.20593363e-03, 3.99098247e-02, 2.68364046e-02, -3.15523855e-02,
       -2.66591571e-02, 9.45647992e-03, 2.71515120e-02, 1.77927092e-02,
       3.48632447e-02, 2.86958031e-02, 3.74026760e-03, 6.17712736e-03,
       -5.43454699e-02, -5.63523062e-02, -4.72120233e-02,
       -5.74150383e-02, -1.90047417e-02, -2.05470566e-02,
       -2.96568274e-02, -2.73760054e-02, -2.29189955e-02, 3.41159366e-02,
       4.47790623e-02, 2.62322314e-02, 5.66562079e-02, 8.15297738e-02,
       1.10987492e-01, 5.90617880e-02, 3.90749313e-02, 5.07724360e-02,
       -2.43057348e-02, -4.32051457e-02, -5.54472506e-02,
       -2.23557390e-02, 9.20470338e-03, 1.32047674e-02, -1.05587179e-02,
       -5.93504459e-02, -3.48467194e-02, 1.61078235e-03, 9.26251709e-03,
       2.16985475e-02, 1.79555323e-02, -2.56656688e-02, 1.46218045e-02,
       9.34259128e-03, -2.60319473e-04, 1.85254700e-02, -3.73061784e-02,
       -1.79630369e-02, 1.90775469e-02, 4.78555299e-02, 2.25009513e-03,
       1.39888963e-02, 9.00590513e-03, -6.74156100e-02, -2.55994741e-02,
       1.03554567e-02, -5.31359343e-03, -1.50005929e-02, -1.13929808e-02,
       -2.69196257e-02, 3.88754271e-02, 2.39676666e-02, -1.69794373e-02,
       5.90990437e-03, -2.16295454e-03, -5.09307496e-02, -1.73615012e-03,
       -3.92248761e-03, -1.89788118e-02, 4.45570499e-02, 3.25546749e-02,
       -4.01485115e-02, -2.59476360e-02, 4.04606909e-02, -3.54161710e-02,
       -1.91137847e-02, -1.27400430e-02, 1.73234418e-02, -4.96225106e-03,
       -4.28005904e-02, -2.67213117e-02, 6.11879751e-02, 4.23128679e-02,
       -3.49657610e-02, -5.25220484e-03, 3.70043591e-02, 5.22325896e-02,
       5.15451133e-02, 1.18754972e-02, -2.26567686e-02, 4.90815192e-02,
       4.09735255e-02, -3.48318778e-02, -2.51846984e-02, -1.99598558e-02,
       -1.45640057e-02, -1.40390890e-02, -3.47051248e-02,
       -4.05740999e-02, 5.36306500e-02, 2.73764078e-02, -4.92906533e-02,
       -1.07494583e-02, 3.40853930e-02, 9.38767381e-03, 2.33403463e-02,
       -2.16371147e-03, -2.44713761e-02, 9.97983757e-03, -5.44708185e-02,
       -5.20219468e-02, 3.37516218e-02, 3.94443348e-02, 4.75839563e-02,
       2.72151772e-02, 3.68778221e-03, -5.82467653e-02, -6.35998398e-02,
       -2.50113029e-02, 6.67241737e-02, 7.75775909e-02, 8.68781134e-02,
       3.96364853e-02, 2.40256730e-02, 4.20641527e-02, -6.90641580e-03,
       -4.41648923e-02, -4.73628007e-02, -8.06891099e-02,
       -3.17703187e-03, 1.95561219e-02, 3.21474634e-02, 3.45477015e-02,
       4.57331166e-02, -4.62842099e-02, -5.73209152e-02, -3.23120765e-02,
       -1.22924484e-02, 1.94137786e-02, 4.74241339e-02, 2.51096673e-02,
       5.17128631e-02, 8.39185268e-02, 7.33360350e-02, 1.70486490e-03,
       1.99705251e-02, 3.81854698e-02, 9.17657185e-03, 2.55488623e-02,
       -2.96423100e-02, -1.53087946e-02, 1.00981174e-02, 3.33210714e-02,
       2.66799740e-02, -2.73445137e-02, -1.51770581e-02, 1.43723153e-02,
       1.96475652e-03, 1.88513994e-02, -1.59688406e-02, 3.05850357e-02,
       4.03019181e-03, 4.80941543e-03, 2.35248990e-02, 4.56909761e-02,
       2.58247126e-02, 6.75351871e-03, -6.86505996e-03, -4.01528412e-03,
       9.90919024e-03, 5.58278896e-02, 4.64657173e-02, -1.43119274e-02,
       2.33436991e-02, 3.82476635e-02, -2.82300357e-02, 6.96080038e-03,
       -3.18773426e-02, -8.52109585e-03, -3.03859152e-02,
       -1.10126268e-02, -4.76254746e-02, 4.66149561e-02, 9.01375115e-02,
       7.56740794e-02, 2.54837293e-02, 5.73567972e-02, 6.62156865e-02,
       1.89165138e-02, -3.90955471e-02, -5.87136373e-02, -3.87743860e-02,
       -1.80583224e-02, -2.66311932e-02, 2.57998314e-02, -1.18760690e-02,
       2.61378428e-03, -3.59991230e-02, -8.12060535e-02, -1.47088561e-02,
       4.84875813e-02, 6.90483898e-02, 3.93275283e-02, -1.36622768e-02,
       6.46279827e-02, 9.55285504e-02, 3.84757556e-02, -6.42107129e-02,
       -7.02890381e-02, -5.32351658e-02, -1.13159930e-02,
       -3.06349527e-02, 3.22007798e-02, -2.58445769e-04, 8.23630486e-03,
       -3.55896950e-02, -6.44959137e-02, -4.01867926e-02, 2.70113442e-02,
       1.37748271e-02, -9.96539835e-03, -8.07851031e-02, -2.73615151e-04,
       4.61748382e-03, 3.16439047e-02, -2.12713350e-02, -2.47397590e-02,
       -7.00965943e-03, -7.99494050e-03, -4.07457314e-02,
       -3.70965004e-02, -4.95370366e-02, -2.21387986e-02,
       -6.82605803e-03, 5.63899241e-03, -7.35185668e-02, -7.19540752e-03,
       9.34379268e-03, -8.56742542e-03, -6.36838600e-02, -2.39514699e-03,
       -9.22447944e-04, 3.96231823e-02, -3.88008580e-02, -2.24409886e-02,
       -1.29016833e-02, -2.31830273e-02, -5.51983267e-02,
       -5.54371141e-02, -5.36055826e-02, -1.96853224e-02, 3.67856724e-03,
       -1.27083780e-02, -3.44438590e-02, -4.91349306e-03, 2.37379074e-02,
       1.09617785e-02, 3.79135530e-03, -2.90062628e-03, -4.54063807e-03,
       9.86123178e-03, -3.55837867e-02, -5.04581779e-02, 3.38184950e-03,
       8.99398793e-03, -2.18601879e-02, -2.46503409e-02, -2.37496104e-02,
       2.06262944e-03, 9.29291360e-03, -6.43375367e-02, -7.84485321e-03,
       2.13014763e-02, -5.55994129e-03, -2.98920483e-03, -1.77564833e-03,
       1.05683161e-02, 1.93753187e-02, 1.89832691e-02, 5.59388893e-04,
       -5.42638004e-02, 1.09072141e-02, 2.76294034e-02, -2.36724261e-02,
       -3.14195305e-02, -4.95880172e-02, -1.40623190e-03, 2.62337900e-03,
       -1.38327237e-02, -4.36932333e-02, 1.42463828e-02, 1.03656610e-03,
       6.98651420e-03, 7.97102135e-03, 1.65903866e-02, 8.14029109e-03,
       2.71611428e-03, -4.47184481e-02, -2.60502417e-02, -8.92935414e-03,
       6.90259226e-03, 1.70766357e-02, 2.75288001e-02, 2.41239425e-02,
       2.03108173e-02, -1.07785184e-02, -4.46026698e-02, -6.80600330e-02,
       2.18980550e-03, 8.19538627e-03, 5.94453374e-03, 3.98077210e-03,
       1.34653121e-03, -7.71241682e-03, -5.67746209e-03, -3.56598869e-02,
       -5.57554178e-02, -1.61925554e-02, 1.24138761e-02, 2.76836157e-02,
       3.12758982e-02, 1.74084660e-02, -2.00133286e-02, -3.08354460e-02,
       -4.91116159e-02, -2.96569243e-02, 1.18690394e-02, 3.17637846e-02,
       3.54593992e-02, 2.19500922e-02, 3.54237445e-02, 1.30508989e-02,
       -3.63031938e-03, -5.25344498e-02, -2.00778078e-02,
       -7.47232558e-03, -1.79655105e-02, 1.54625615e-02, 5.39418906e-02,
       6.35914365e-03, 8.76147021e-03, -9.49571840e-03, -5.11259809e-02,
       -3.85691710e-02, 2.33003981e-02, 2.09065452e-02, 3.46764587e-02,
       4.06502075e-02, 5.27257621e-02, 4.52299491e-02, -3.80401383e-04,
       -5.18331602e-02, -2.54911426e-02, 2.24044714e-02, 3.77882156e-03,
       -1.45928208e-02, 2.13857424e-02, 2.88384384e-03, 1.61442626e-02,
       -2.41563581e-02, -4.28273045e-02, -4.40655425e-02, 6.99767238e-03,
       -1.48810092e-02, -2.33576968e-02, 6.86480617e-03, -1.70369949e-02,
       -2.45633698e-03, 4.32094233e-03, -2.28219088e-02, 1.14310754e-03,
       3.68534178e-02, -2.62987390e-02, -2.01611631e-02, 9.20433924e-03,
       -4.18719053e-02, -5.49926981e-02, 1.01426104e-02, 1.16885826e-02,
       1.94536559e-02, 5.19513600e-02, 1.92289788e-03, -1.67934336e-02,
       8.92771874e-03, -5.04997931e-02, -1.03278495e-02, 3.93375615e-03,
       -5.23120053e-02, -5.32463752e-03, 2.37654503e-02, -3.31238098e-02,
       -4.40752916e-02, -8.49677809e-03, -2.80824136e-02,
       -1.71857104e-02, 5.53451031e-02, -5.62637625e-03, 5.48772141e-03,
       4.63567264e-02, -1.91306677e-02, -1.19523909e-02, -1.59432925e-02,
       -2.11378653e-02, -2.58345846e-02, 2.58656349e-02, -1.61253829e-02,
       1.02817537e-02, 5.90017885e-02, 1.64381452e-02, -4.67283614e-02,
       -2.07575341e-03, -3.03365011e-02, 2.71965808e-04, 3.74943130e-02,
       2.22920962e-02, -1.92241184e-02, 8.17457400e-03, -5.29396497e-02,
       -5.22750653e-02, -1.48533583e-02, -1.74961835e-02,
       -1.40198432e-02, 2.80162245e-02, -8.89525283e-03, -1.73087406e-03,
       2.76481491e-02, -2.49957256e-02, -5.74253052e-02, -1.88686699e-02,
       -4.66972813e-02, 2.89901048e-02, 4.15513739e-02, 1.83248837e-02,
       -1.37448534e-02, 5.37049398e-02, -9.17862635e-03, -2.66690720e-02,
       -1.75266098e-02, -2.98302919e-02, -1.41164828e-02, 2.91220602e-02,
       5.88329555e-03, 5.00997016e-03, 1.36894658e-02, -6.49599954e-02,
       -5.02645299e-02, -3.46407332e-02, -4.14048135e-02,
       -3.56912650e-02, -9.64683667e-03, 1.06548155e-02, -2.14482080e-02,
       4.59325425e-02, 8.12214466e-07, -4.21157032e-02, -1.61069334e-02,
       -4.54905331e-02, -2.76352232e-03, 6.21129312e-02, 1.98499225e-02,
       -1.04369940e-02, 1.64820068e-02, -1.07586654e-02, -2.81321183e-02,
       -9.72828735e-03, -5.88543266e-02, -4.99424785e-02, 2.76785661e-02,
       2.62945909e-02, 2.78482009e-02, 2.44422201e-02, -4.27276865e-02,
       -6.04425035e-02, -3.93428802e-02, -4.80689518e-02,
       -5.44467233e-02, -2.24485826e-02, 2.22908035e-02, 2.93396190e-02,
       1.80433951e-02, 5.38951252e-04, -3.62824202e-02, -6.64796159e-02,
       -4.10579517e-02, -2.27298737e-02, 1.48434285e-02, 2.59270445e-02,
       2.84031406e-02, 1.38421906e-02, -5.12232892e-02, -4.06867303e-02,
       -2.08115410e-02, -4.79193591e-02, -4.35455777e-02, 2.23333929e-02,
       1.26541434e-02, 5.16844764e-02, 1.98164862e-02, -7.71172810e-03,
       -4.45205644e-02, -3.44957970e-02, -2.65406277e-02,
       -1.82727128e-02, 2.63834782e-02, 8.22387077e-03, 5.54277748e-03,
       5.85684692e-03, 1.86847709e-02, 6.02283655e-03, -6.99499296e-03,
       -1.41882303e-03, 7.34878518e-03, 1.80577412e-02, 3.58471647e-02,
       1.48827042e-02, 2.60336474e-02, 1.04435161e-02, -9.36440751e-03,
       -1.19013253e-04, 1.65670905e-02, 1.57313254e-02, 4.13957648e-02,
       3.16008516e-02, 2.94953566e-02, 5.36191603e-03, -1.58171840e-02,
       6.17108832e-04, 1.15452362e-02, 1.84391357e-03, 3.52540426e-02,
       2.72801705e-02, -1.27924038e-02, 3.21291259e-06, 2.95424499e-02,
       1.49178959e-03, -1.25932395e-02, 2.01866515e-02, 6.90830732e-03,
       8.39804299e-03, 3.38331424e-02, 5.68216899e-03, -2.54030759e-03,
       2.67024357e-02, 4.05988749e-03, 4.41181324e-02, 6.35056198e-02,
       1.02437869e-01, 2.34641135e-02, 1.45250326e-02, 1.52160954e-02,
       -6.04393855e-02, -5.46434000e-02, -5.09721227e-02,
       -2.03575697e-02, -1.33580773e-03, -7.11955642e-03,
       -2.87491232e-02, -7.34537914e-02, -7.70099536e-02,
       -2.17082375e-03, 3.06639504e-02, 3.48571353e-02, 6.75871074e-02,
       7.66402632e-02, 5.81737496e-02, -1.06061157e-02, 3.23742181e-02,
       -6.23677718e-03, -6.05690293e-02, -5.47491536e-02,
       -3.17501500e-02, 2.60523800e-02, 9.85768996e-03, -2.14421898e-02,
       -6.23755343e-02, -5.39730005e-02, -6.00231029e-02, 3.29709658e-03,
       2.09929363e-04, -1.42144295e-03, 1.64142344e-02, -3.40534351e-03,
       3.29437591e-02, 2.19538808e-02, -1.82247907e-02, -1.53958835e-02,
       -1.05018858e-02, -2.61946041e-02, -2.38664425e-03,
       -7.48232007e-03, -2.72899661e-02, 2.62004752e-02, 1.31465439e-02,
       -1.59986466e-02, -2.41745543e-02, 4.69228718e-03, 5.11746388e-03,
       3.44860032e-02, 6.32505789e-02, 2.28049941e-02, 3.88830006e-02,
       7.72567419e-03, -1.05135776e-02, 9.84531920e-03, -1.56992041e-02,
       -2.22559888e-02, 5.22428774e-04, 9.11313854e-03, 2.26315251e-03,
       -8.47397023e-04, -6.10345788e-03, -2.67190915e-02, 7.43527990e-03,
       2.13565379e-02, -1.50229838e-02, -8.47384240e-03, -3.23426863e-03,
       1.56595167e-02, 5.29178092e-03, 2.73385197e-02, 5.20181190e-03,
       7.07417121e-03, 2.54948568e-02, -1.16863893e-02, -6.06492581e-03,
       1.72424875e-02, -5.26271500e-02, 1.07784262e-02, 1.13213351e-02,
       -3.41449818e-03, 1.44347809e-02, -1.88116934e-02, -3.87628935e-02,
       -2.09351908e-03, 1.36680249e-02, 4.29878049e-02, 3.02522983e-02,
       5.15766768e-03, -2.65700221e-02, -2.28508990e-02, 6.45038066e-03,
       -1.68970879e-02, -6.64391415e-03, -1.64159108e-03, 1.61094451e-03,
       2.02596206e-02, 3.74736376e-02, -2.12589744e-02, 3.65616865e-02,
       -1.65567435e-02, -7.06007332e-02, -2.93195620e-02,
       -1.12625631e-02, 1.41928170e-03, 6.99862093e-02, 8.26289132e-02,
       6.97783567e-03, -1.89875178e-02, 4.66235168e-03, 7.66286906e-03,
       2.04606261e-02, 1.21178655e-02, 1.07941674e-02, 8.70334357e-02,
       9.87362042e-02, 1.04171023e-01, 6.10828735e-02, -5.63384555e-02,
       -8.26837420e-02, -5.69118448e-02, -2.94862743e-02, 1.76308051e-04,
       1.33298496e-02, 3.47504131e-02, -3.68318558e-02, -1.33596528e-02,
       -2.03125346e-02, -4.98550981e-02, -3.11776977e-02,
       -2.94885337e-02, 3.48332487e-02, 4.64857705e-02, 4.98558208e-02,
       3.69084179e-02, 3.94796692e-02, 6.12291396e-02, 7.78106898e-02,
       2.24155318e-02, -7.78263784e-04, 1.13044726e-02, -1.27704432e-02,
       -4.88538155e-03, 6.26467466e-02, 5.54524288e-02, 2.83339210e-02,
       7.10306540e-02, 5.04545681e-02, -4.02975827e-03, -8.35902523e-03,
       6.36109617e-03, 4.75539826e-02, 5.75018302e-03, -1.72874983e-02,
       4.66202907e-02, 1.17048770e-02, -2.08499860e-02, -3.68901454e-02,
       2.27372684e-02, -3.68908159e-02, -3.25958431e-02, 1.63920817e-03,
       3.90786491e-02, 7.45443860e-03, 3.18659432e-02, -8.47749878e-03,
       -3.52621861e-02, 1.45652227e-03, -3.09036635e-02, 2.13333890e-02,
       -1.93498321e-02, -2.00576466e-02, -1.94334798e-02, 5.53813316e-02,
       1.89961176e-02, -2.16453709e-03, -2.63791438e-02, 7.30691254e-02,
       1.66356713e-01, 9.99578461e-02, -6.97823092e-02, -5.94689921e-02,
       -1.99430957e-02, -2.58060843e-02, -5.18824421e-02,
       -6.00215094e-03, -9.15206224e-03, 4.67665717e-02, 4.34037149e-02,
       -3.35864536e-02, -3.58478017e-02, 1.83279328e-02, -1.30540524e-02,
       -3.61681841e-02, -2.43067648e-02, 5.76550700e-02, 1.58342063e-01,
       1.09460577e-01, -1.30872941e-02, -5.71807772e-02, -3.18162479e-02,
       -4.38427776e-02, -6.73425347e-02, 1.73908789e-02, -3.50302714e-03,
       4.57650051e-02, 9.98823419e-02, -4.45340155e-03, -5.14866821e-02,
       -4.68624290e-03, 3.49135743e-03, -9.80275683e-03, -5.80653064e-02,
       -3.91307399e-02, -8.23950954e-03, 6.96848556e-02, 2.07411684e-03,
       1.48765370e-02, -1.92660314e-03, -1.82747990e-02, -3.56114358e-02,
       -1.93613470e-02, -3.75938080e-02, -1.32124964e-02, 7.79435877e-03,
       9.05308174e-04, -2.55485438e-02, 6.89379172e-03, 1.87953294e-03,
       -3.76493949e-03, -2.69879922e-02, -6.44368585e-03, 3.81494276e-02,
       1.22701295e-01, 3.14827375e-02, -2.35597473e-02, 1.33659896e-02,
       1.00734439e-02, -1.00222044e-02, 4.67504235e-03, -2.20096577e-02,
       -3.18820179e-02, 3.47667150e-02, -2.17395872e-02, 2.38476321e-03,
       9.06696450e-03, -3.54475453e-02, -2.45224237e-02, -3.43713835e-02,
       -1.38933621e-02, -1.94644071e-02, 1.91293750e-02, 2.89014746e-02,
       -1.16921170e-02, -2.25068405e-02, -2.41336245e-02,
       -2.18535680e-02, -2.57131103e-02, -2.79673282e-02,
       -1.69400387e-02, 9.99709684e-03, 3.78317162e-02, 2.64701135e-02,
       4.08952199e-02, -6.37322012e-03, -1.25988768e-02, -5.68091795e-02,
       -2.46226713e-02, -2.80705187e-02, 4.81667072e-02, 2.62017921e-02,
       7.90650211e-03, 2.61553582e-02, -4.05946793e-03, -5.19018620e-03,
       -1.09455828e-02, -2.63162944e-02, -2.34188717e-02, 6.17831759e-02,
       2.41347533e-02, -3.13677788e-02, -2.16473453e-02, -8.15935899e-03,
       1.20717883e-02, -1.71205290e-02, 4.90847137e-03, -4.35584737e-03,
       1.22674881e-02, 1.29100056e-02, -9.31604765e-03, -2.30402090e-02,
       -1.62077751e-02, -2.99471052e-04, 7.84311816e-03, -5.33459941e-03,
       -1.45644760e-02, 5.86669426e-03, 5.75604849e-03, 2.69317608e-02,
       1.45804174e-02, -7.72945350e-03, 1.88518949e-02, -1.73712410e-02,
       1.05619535e-03, -1.51190301e-03, 9.23405662e-02, 2.70107798e-02,
       -1.21243419e-02, -1.99215882e-03, -2.93928431e-03,
       -1.26471240e-02, -2.31621176e-04, -2.36523021e-02,
       -1.49999112e-02, 5.53688481e-02, 4.14564572e-02, -4.89966534e-02,
       1.12000182e-02, -4.30514058e-03, 9.32607707e-03, -8.99678841e-03,
       -7.97295198e-03, -1.12819225e-02, 2.35089306e-02, 3.82879493e-03,
       -2.20171008e-02, 9.20612738e-03, -1.82513595e-02, 1.31250941e-03,
       -5.04783448e-03, -2.57999934e-02, -1.46954833e-02,
       -5.16906986e-03, -4.46781740e-02, 1.74838379e-02, 1.01357354e-02,
       -9.35759023e-03, 1.12089636e-02, 9.05559398e-03, -1.68744158e-02,
       5.92212379e-03, 7.79202133e-02, 7.31998980e-02, 4.49089408e-02,
       2.12510880e-02, -2.65992638e-02, 1.16940653e-02, 7.56444409e-03,
       -1.67095736e-02, -2.07993221e-02, 3.56652290e-02, 5.38824759e-02,
       3.20486985e-02, 3.83923389e-02, 5.01193944e-03, 9.03516542e-03,
       -3.13069522e-02, -5.13559021e-02, -3.63572910e-02, 5.90914744e-04,
       -5.51709160e-02, -1.69856509e-03, 2.18733028e-02, -3.78840528e-02,
       -5.30734425e-03, -1.70018785e-02, -3.67932990e-02,
       -6.11865222e-02, 1.11698247e-02, -2.73652971e-02, 4.10235897e-02,
       5.62914759e-02, -4.09961467e-05, 2.96059810e-02, 1.10027986e-02,
       -2.78132744e-02, -2.00085286e-02, 3.95955704e-02, 3.51728462e-02,
       3.34733631e-04, 1.47662899e-02, -6.02311268e-03, 1.43238045e-02,
       3.09715923e-02, -2.63757482e-02, -3.10772639e-02, 9.80057195e-03,
       4.25980836e-02, 3.44104273e-03, 1.57749727e-02, -4.10700962e-02,
       -3.30291055e-02, -3.01707853e-02, -2.23531537e-02,
       -5.07960171e-02, 2.17822846e-03, 3.01750144e-03, 2.07734182e-02,
       -7.83031806e-03, -6.20139390e-02, -1.62897762e-02,
       -2.22006124e-02, -4.16774005e-02, -1.72412544e-02, 2.15437617e-02,
       2.28442773e-02, 6.57304795e-03, -2.40128534e-03, -1.35096610e-02,
       -1.44350938e-02, -2.07897159e-03, -2.47506071e-02,
       -4.84637506e-02, -6.30660634e-03, 2.57915761e-02, 1.33495992e-02,
       -1.64869037e-02, -5.35025224e-02, -1.30104432e-02,
       -2.76562152e-03, -4.20081951e-02, -5.10002226e-02,
       -6.30090130e-04, 1.06432354e-02, -9.28341411e-03, 2.35820487e-02,
       -1.07126888e-02, -1.62758734e-02, -3.37691978e-02,
       -2.43932586e-02, -1.20238205e-02, 6.28308132e-02, 1.72163304e-02,
       1.00395354e-02, 1.86938178e-02, -4.37523890e-03, -8.68102722e-03,
       -2.06467342e-02, -2.24456470e-02, -1.44374007e-02, 3.84949334e-02,
       2.74008941e-02, 1.38733191e-02, -1.28434561e-02, -5.21672890e-02,
       -8.93306732e-03, -3.06907464e-02, -4.19748276e-02,
       -5.83981909e-02, 1.55207766e-02, -5.50579000e-03, -8.53195041e-03,
       -3.06243487e-02, -3.78965177e-02, -3.01282178e-03,
       -1.31529924e-02, -1.05321752e-02, -2.09080800e-02,
       -3.54321697e-03, 1.80362025e-03, 3.06042116e-02, 3.22942212e-02,
       -4.56564426e-02, -2.65165213e-02, -2.55282894e-02,
       -8.75897706e-03, -2.72141863e-02, 3.83201018e-02, 2.40873359e-02,
       5.90947047e-02, 1.39533915e-02, -3.42815220e-02, -3.35237421e-02,
       -1.94750652e-02, -8.38674488e-04, -5.78343030e-03, 3.69330682e-02,
       1.06208073e-02, -2.88943034e-02, -3.07153426e-02, -4.99611050e-02,
       -2.42885798e-02, -3.49890701e-02, 5.85069926e-03, 2.13602302e-03,
       -1.25451684e-02, -1.76430624e-02, -2.01745518e-02,
       -3.72698717e-02, -1.50469681e-02, -1.38717545e-02,
       -2.21513845e-02, -2.16055801e-03, -2.04978250e-02,
       -6.83916034e-03, -2.90416088e-02, 3.48057188e-02, 3.24604325e-02,
       1.60589367e-02, 1.50318732e-02, 3.41364294e-02, 1.77211277e-02,
       5.37668988e-02, 6.94853067e-02, 4.90764119e-02, 8.74732807e-03,
       3.06874979e-02, 2.05335561e-02, 7.04242196e-03, -2.89034122e-03,
       -7.55038951e-03, 1.70814190e-02, 3.28860953e-02, 7.68195791e-03,
       -3.10289091e-03, 5.17771486e-03, 2.65803486e-02, 1.74068343e-02,
       -2.05874117e-03, -1.88655369e-02, 2.74364627e-03, 4.01907340e-02,
       -8.96722544e-03, -4.19707410e-02, -1.04247350e-02, 4.32180334e-03,
       -1.94966663e-02, -5.13221789e-03, -4.06800508e-02,
       -1.28973639e-02, 1.04036042e-02, -3.20305713e-02, 4.71554697e-02,
       7.13340715e-02, 7.60501027e-02, 8.45301077e-02, 7.62738287e-02,
       4.83803824e-02, 6.98782271e-03, 3.09781060e-02, 2.80602816e-02,
       -9.55663528e-03, -3.89285870e-02, -7.27086049e-03, 5.46841882e-02,
       2.20842455e-02, -1.54429395e-02, -5.85570559e-02, -3.81469466e-02,
       -1.76684242e-02, 6.73388131e-03, 2.14685109e-02, 3.57196927e-02,
       3.75939235e-02, 4.78647538e-02, 2.82787550e-02, 1.24014681e-02,
       4.78248112e-03, -2.63179606e-03, -2.47861780e-02, -1.67424418e-02,
       -2.33926624e-02, -1.00619225e-02, -1.58832259e-02,
       -3.59123424e-02, -3.85881960e-02, -7.09599257e-02,
       -4.28638123e-02, 1.26059605e-02, -2.60514244e-02, 6.21739263e-03,
       4.14522849e-02, -9.24882200e-03, 3.45426705e-03, -1.01740621e-02,
       -1.27808731e-02, -1.12621356e-02, -1.59816705e-02,
       -2.62623262e-02, 7.09240930e-03, 3.82207287e-03, -1.18799740e-02,
       -4.11384739e-03, -9.55094118e-03, -3.27676386e-02,
       -2.69052573e-02, 8.42734799e-03, -6.10196544e-03, -1.26906135e-03,
       3.11155133e-02, -1.24292579e-02, 2.31863651e-02, 4.73542958e-02,
       1.33189689e-02, -6.78975554e-03, -9.03538987e-03, -2.86859646e-02,
       3.33125293e-02, 4.42144498e-02, -2.38355692e-03, 2.77648661e-02,
       3.30973454e-02, 4.20432392e-04, -6.19398523e-03, 1.46684255e-02,
       -3.12192887e-02, -2.24499330e-02, -8.18419456e-03, 1.09102409e-02,
       6.86757499e-03, -1.85762886e-02, -3.99507284e-02, 1.08058173e-02,
       1.12374080e-02, -8.07642844e-03, 9.83901881e-03, 7.43454043e-03,
       -4.59177010e-02, -2.50002127e-02, 2.42486014e-03, -4.93147746e-02,
       8.89458507e-03, 1.07997032e-02, -3.78460363e-02, -3.72164287e-02,
       1.06139546e-02, 1.94962397e-02, 2.92873979e-02, 1.75162982e-02,
       -1.36747397e-03, 5.44627272e-02, 4.26835902e-02, -3.14830779e-03,
       1.41482307e-02, 6.06148280e-02, 2.39406284e-02, 2.12230496e-02,
       3.41293700e-02, -2.26015528e-03, 6.56551719e-02, -1.83131881e-02,
       -4.88360189e-02, -8.41726735e-03, 2.52251383e-02, -1.47606526e-03,
       -1.40787754e-02, 3.60032893e-03, -2.11374480e-02, -6.76694699e-03,
       2.26863064e-02, -2.23147087e-02, 1.05640190e-02, -1.83940795e-03,
       1.62868924e-03, 2.61054910e-03, -1.37774379e-03, -5.37400134e-03,
       2.41101384e-02, 3.27634439e-02, -5.28832991e-03, -1.33815210e-03,
       3.23993266e-02, 2.03513987e-02, -8.61133914e-03, 5.89255360e-04,
       -1.65170711e-03, 2.39535291e-02, 2.73958445e-02, -2.14790693e-04,
       2.19103452e-02, 1.20094828e-02, -1.55526949e-02, -9.88811720e-03,
       -4.38941978e-02, -7.40768015e-03, 2.50194427e-02, 1.57883596e-02,
       -5.37679996e-03, -7.43967574e-03, -1.47837996e-02, 6.23788731e-03,
       -1.96626093e-02, -1.64143741e-02, -3.51482513e-03,
       -3.52863176e-03, -1.02248732e-02, 1.89238358e-02, 8.09551310e-03,
       -2.30219793e-02, 2.50014430e-03, -1.59669723e-02, -3.04392562e-03,
       -4.54106368e-03, -3.17876935e-02, -4.25347779e-03,
       -1.82793587e-02, 1.02415401e-02, 2.11120874e-04, 3.06836385e-02,
       9.76294931e-03, -3.23581658e-02, -4.39268630e-03, -7.83381751e-04,
       1.94462147e-02, 1.98179437e-03, 1.06815491e-02, -2.01994665e-02,
       1.66863240e-02, 1.80367790e-02, 1.76425111e-02, 5.47291245e-03,
       2.12684087e-02, -2.54605934e-02, 2.92908847e-02, 2.60412972e-02,
       -8.71796440e-03, -1.04570817e-02, -2.41923053e-03, 2.85288468e-02,
       4.58500385e-02, -3.00393384e-02, -2.18768846e-02, -8.26130249e-03,
       7.89707247e-03, -1.71744656e-02, -3.50974640e-03, -2.71957610e-02,
       -1.01011656e-02, 4.52816114e-02, -2.03694291e-02, -1.18612498e-02,
       1.27688805e-02, 2.47790087e-02, 4.80409525e-03, -2.68969336e-03,
       -3.85857071e-03, 9.73896682e-03, -1.92398522e-02, -1.09179886e-02,
       -9.45561845e-03, 3.29799484e-03, -1.33894887e-02, -3.90550843e-03,
       4.48619351e-02, -3.81174125e-02, -6.49972912e-03, -5.61263412e-03,
       -1.59455594e-02, 1.35279689e-02, 1.13865333e-02, 8.79620574e-03,
       1.05735548e-02, 1.69039925e-03, -1.94289871e-02, 1.52138602e-02,
       1.18283510e-01, 4.86848131e-02, -3.98142673e-02, -1.00235790e-02,
       -1.71249025e-02, -2.86545176e-02, 4.47120564e-03, -2.62769163e-02,
       -2.97062863e-02, 6.33348823e-02, -1.56054311e-02, 2.94448584e-02,
       -1.87021531e-02, -1.65971052e-02, -9.95054003e-03, 2.88937846e-03,
       -2.20528841e-02, 1.41407093e-02, 5.27571067e-02, 2.57611591e-02,
       5.09871970e-05, -1.07457209e-02, 7.56101264e-03, -1.31383575e-02,
       -3.73584102e-03, -2.51311939e-02, -2.98714992e-02, 1.23429336e-02,
       -3.34715121e-03, -3.66603844e-02, 2.35478934e-02, -1.06955897e-02,
       -4.69954312e-03, -5.72425034e-03, -1.32676661e-02,
       -2.18363237e-02, 6.82087839e-02, -1.46897126e-03, -2.14444846e-02,
       2.82102637e-02, -4.12933901e-02, -1.46846231e-02, -1.16952544e-03,
       7.67310662e-03, -1.26852710e-02, 3.69881690e-02, -2.93060089e-03,
       4.47708648e-03, 2.24744473e-02, -7.61468429e-04, 1.77167952e-02,
       -2.05861661e-03, 1.05615496e-03, -6.48988783e-03, 3.16160433e-02,
       2.23444868e-02, 6.16550155e-04, -5.12844929e-03, -4.11262959e-02,
       -3.16203088e-02, 4.10829158e-03, 1.36176571e-02, -8.71201046e-03,
       2.45280229e-02, 2.46882010e-02, -4.21836786e-03, 4.28767353e-02,
       -3.92104723e-02, -3.29130143e-03, 1.79475360e-02, 2.34426409e-02,
       -1.89274736e-02, 6.47194237e-02, 2.39403471e-02, -1.65385026e-02,
       4.27451022e-02, -2.06641685e-02, -1.79948155e-02, 2.02861782e-02,
       2.91695283e-03, -1.86900441e-02, 9.31645744e-03, 1.11523923e-02,
       -3.71821108e-03, 1.04816072e-02, -2.56516375e-02, -2.35384218e-02,
       2.78282277e-02, 3.61184403e-02, -1.59452688e-02, 1.03815850e-02,
       -3.60868196e-03, 2.04091389e-02, 5.30410232e-03, -4.75707743e-03,
       -3.55682112e-02, 2.58237477e-02, -1.68838892e-02, 4.43377020e-03,
       7.85355549e-03, 2.04593292e-03, -7.39106303e-03, 1.70241334e-02,
       3.24608618e-03, 1.82784013e-02, -3.93396523e-03, 1.14678787e-02,
       7.99727160e-03, 4.10606004e-02, 2.75586285e-02, 2.05401480e-02,
       -1.88031178e-02, -1.88913420e-02, 3.54722254e-02, 7.57604325e-03,
       1.50227677e-02, -1.36791263e-02, 5.47841862e-02, 1.95181165e-02,
       2.57919058e-02, 7.16537191e-03, -2.34818459e-02, -1.64783802e-02,
       -1.34997610e-02, -9.21666622e-03, 6.57506101e-03, -9.98183805e-03,
       -1.21673837e-03, 2.34246496e-02, 2.32914295e-02, -4.32164641e-03,
       1.79462060e-02, 9.22997668e-03, 8.07698909e-03, -2.60683615e-02,
       -1.30147152e-02, -1.00420443e-02, 1.50974067e-02, 2.95875892e-02,
       3.49660851e-02, 5.12805358e-02, 3.44502293e-02, 3.69288735e-02,
       -4.37732739e-03, 5.91984838e-02, 2.20445544e-02, -6.27755560e-03,
       -5.27618639e-03, -7.49855489e-03, 2.19470151e-02, 2.91155409e-02,
       2.04328727e-03, -6.35002786e-03, 1.02405902e-02, 1.90409608e-02,
       2.03932188e-02, 3.87996733e-02, 9.42469109e-03, 1.70380548e-02,
       -2.67458539e-02, 5.00127813e-03, -4.64342572e-02, -1.22913290e-02,
       -3.67283970e-02, -2.62800772e-02, -5.54346573e-03,
       -7.47833122e-03, -1.07880943e-02, 1.36970663e-02, -1.45789087e-02,
       -1.83568876e-02, -2.66166739e-02, -2.61968784e-02,
       -1.67365856e-02, 1.97854661e-03, -1.48579301e-02, 1.64942686e-02,
       -5.10280719e-03, 2.03657672e-02, 1.14120403e-03, 4.91043963e-02,
       4.19743769e-02, 2.63909553e-03, 6.71996363e-03, -1.93002075e-02,
       2.54157428e-02, 3.10211768e-03, 2.87554935e-02, 2.25194786e-02,
       5.08586355e-02, 1.90019608e-02, -3.53922285e-02, -1.66018605e-02,
       -2.51954496e-02, 5.17156720e-03, -2.44969204e-02, -2.68153623e-02,
       -1.31700598e-02, 1.30722644e-02, -1.83713646e-03, -3.87789123e-02,
       1.26189440e-02, 7.12990819e-04, 2.14721523e-02, -3.61311920e-02,
       1.12385293e-02, 7.90543854e-03, 1.70602347e-03, -2.79874690e-02,
       6.06609602e-03, 9.67573375e-03, -1.11394590e-02, 3.17964293e-02,
       1.07647013e-02, 2.57798024e-02, 1.50431553e-03, 4.95327376e-02,
       5.59882214e-03, -2.65937094e-02, -7.23016867e-03, 2.41252873e-03,
       2.05782522e-02, 2.33930945e-02, 2.20895316e-02, -6.44256035e-03,
       1.21502662e-02, -2.71551684e-02, -3.77081819e-02, 1.29729947e-02,
       -1.53597401e-04, 2.87501141e-02, -5.97388810e-03, 5.69471158e-03,
       -1.99580248e-02, -1.94760517e-03, -4.00886759e-02,
       -2.73848344e-02, -2.57240348e-02, -1.66679788e-02,
       -1.92662887e-02, -7.78555777e-03, 1.17153330e-02, -2.03213003e-02,
       -1.82777625e-02, -3.01336814e-02, -1.36833461e-02, 1.00241629e-02,
       7.38805952e-03, 2.54823864e-02, 3.12566310e-02, 3.66831198e-02,
       2.12609675e-02, 2.35689171e-02, 3.66922505e-02, -3.31609026e-02,
       -4.91553801e-04, 1.22437375e-02, 1.88284628e-02, 4.71519679e-03,
       1.27584282e-02, 1.35221351e-02, 4.08784971e-02, 1.03806304e-02,
       5.51423430e-03, -1.90812647e-02, -2.15636939e-02, 7.72685744e-04,
       3.68846790e-03, -5.15985675e-03, 3.60158389e-03, -1.11127002e-02,
       -3.77803179e-03, -2.71331053e-02, -2.36089900e-02,
       -1.83581822e-02, -1.18107693e-02, -2.21531298e-02,
       -3.08517981e-02, -4.17492427e-02, -2.69515975e-03,
       -5.18327905e-03, 2.68931058e-03, 5.91492839e-02, 5.47049530e-02,
       5.53905293e-02, 3.65235284e-02, 1.73732471e-02, 2.77374517e-02,
       5.49590662e-02, 6.62188791e-03, -2.30508726e-02, 5.19484766e-02,
       3.60522717e-02, 1.17070731e-02, -1.50222974e-02, -6.83088275e-03,
       1.07020382e-02, 2.26339530e-02, -1.45230526e-02, 1.46465446e-03,
       2.50821430e-02, -9.97903757e-03, -9.78633948e-03, -2.78748646e-02,
       -1.87164657e-02, -1.12700388e-02, -2.99346546e-04,
       -8.23492836e-03, -2.27869451e-02, 1.04523487e-02, -8.32952373e-03,
       -1.15149515e-02, -2.55869627e-02, -1.08481024e-03,
       -1.70655530e-02, -4.62297909e-02, -1.49782877e-02,
       -1.07042426e-02, 3.35771628e-02, 1.38353771e-02, 3.47504541e-02,
       1.02709364e-02, 1.48971211e-02, 7.99645204e-03, 1.77724811e-03,
       9.52857919e-03, -1.81979612e-02, -1.03613427e-02, -2.45386232e-02,
       -1.06290998e-02, 1.44238048e-03, -2.44534779e-02, -1.94299147e-02,
       -4.66353111e-02, -3.45949605e-02, 7.08888471e-03, 7.40139978e-03,
       9.58906580e-03, 1.23813469e-02, -7.47192593e-04, 6.55300915e-03,
       -9.15276725e-03, -1.44601893e-02, 1.07661095e-02, 3.67548480e-03,
       -2.00317279e-02, -3.31213325e-02, -7.83323497e-03, 3.10055609e-03,
       -2.01199371e-02, -3.45175937e-02, -4.36966913e-03,
       -2.13198480e-03, 4.10965122e-02, 1.09393438e-02, -6.01162063e-03,
       -5.39437635e-03, -1.91398133e-02, -1.13625554e-02, 3.67564708e-02,
       2.59060971e-03, 1.34895686e-02, 7.44755846e-03, -2.79267002e-02,
       -1.66176409e-02, 1.09730288e-02, -3.15561183e-02, 1.90345775e-02,
       2.28182636e-02, -5.54742478e-03, 1.57143790e-02, 2.28458401e-02,
       -6.44165510e-03, -1.15258358e-02, -5.43908076e-03, 4.80110431e-03,
       1.15522249e-02, 9.85658262e-03, 5.03617385e-03, -6.58478122e-03,
       1.92932729e-02, -1.61337461e-02, -9.81753599e-03, 1.89761329e-06,
       -3.00750863e-02, 3.25336382e-02, 2.36046184e-02, -1.87058095e-02,
       1.74597204e-02, -1.04921842e-02, -3.88443992e-02, -4.48089428e-02,
       -2.37201042e-02, 1.38081862e-02, 2.19943933e-02, 9.31865722e-03,
       -2.06979923e-02, 9.96305794e-03, -6.85203448e-03, -1.09730773e-02,
       -1.45606706e-02, 3.95887531e-02, 3.20568942e-02, 1.35660917e-02,
       4.64266539e-03, -1.74075775e-02, 1.85233634e-02, 3.12711373e-02,
       -2.43226942e-02, -4.99402285e-02, -1.97883472e-02,
       -9.91504453e-03, 3.19174789e-02, -1.46042174e-02, -3.19625251e-02,
       9.26436856e-03, 3.30355540e-02, 6.10067649e-03, -5.18019944e-02,
       1.48574542e-02, -5.52901719e-03, 2.44091302e-02, 4.11358429e-03,
       9.29208566e-03, 3.78352776e-02, -2.08407361e-02, 1.24887833e-02,
       3.48980841e-03, 4.47307527e-02, 2.95416545e-02, -2.13272148e-03,
       6.96732150e-03, -7.72744371e-03, 3.24893161e-03, 6.01811754e-03,
       -4.33051120e-03, 7.99577311e-03, 3.82781252e-02, -4.51511657e-03,
       1.02049066e-03, -1.87112056e-02, -1.18622025e-02, 1.66613255e-02,
       3.78080048e-02, 6.38442347e-03, -3.76804955e-02, -9.54481866e-03,
       4.26894389e-02, 1.47127304e-02, 3.00976215e-03, -7.34532299e-03,
       1.29545787e-02, 1.33759389e-02, 4.05680165e-02, -5.25431149e-03,
       3.81281925e-03, -2.19654874e-03, 2.41161510e-02, 5.48504898e-03,
       -3.41854729e-02, -1.43168273e-03, -1.69209242e-02, 1.97116984e-03,
       -6.83031161e-04, 2.46224981e-02, 1.53268054e-02, 1.23759005e-02,
       -1.27153769e-02, -2.65039466e-02, -1.54014034e-02,
       -1.91137791e-02, -4.68870276e-04, 3.94114247e-03, 5.73753612e-03,
       -2.31465362e-02, 9.93160624e-03, -1.81725062e-02, -2.04085000e-02,
       -1.03454096e-02, -1.74615078e-03, 3.00739314e-02, 1.02888532e-02,
       2.35102884e-02, 2.86622508e-03, -4.39730426e-03, 1.65216706e-03,
       -3.48514062e-03, 9.03081521e-03, 1.14664864e-02, 8.68377555e-03,
       -6.28117425e-03, 1.82394460e-02, -4.05046865e-02, 9.41757520e-04,
       -4.64882050e-03, -2.21390720e-03, -6.74936548e-03,
       -1.92571282e-02, 1.54162226e-02, 2.90358961e-02, 9.93495248e-03,
       -2.11309828e-02, 8.80324095e-03, -4.54419554e-04, 7.49267358e-03,
       -1.47350477e-02, -1.44907786e-02, 5.08200657e-03, 1.19575277e-04,
       5.52457571e-03, 3.44642112e-03, -2.20241398e-02, -2.27211695e-02,
       -3.34688276e-02, -3.02837193e-02, 1.45774558e-02, -1.25659937e-02,
       2.65208315e-02, 1.54072158e-02, -1.40349912e-02, -1.25795882e-02,
       9.83200967e-03, 2.38854922e-02, 2.99549326e-02, -2.39779055e-02,
       -9.62538645e-03, -1.03492104e-03, 4.34082793e-03, -5.37456386e-03,
       -5.70118912e-02, -2.36787219e-02, -1.09827574e-02,
       -8.89161602e-03, 3.88454199e-02, 2.98252888e-02, 1.97380204e-02,
       6.13946933e-03, 5.63443871e-03, 1.32232467e-02, 8.03469331e-04,
       3.43531221e-02, 6.67700451e-03, -1.46860979e-03, 1.26637062e-02,
       2.54682079e-02, -4.30099666e-03, 1.81761291e-02, -8.67121667e-03,
       -2.48384885e-02, -1.48495017e-02, -3.00017055e-02, 1.15494626e-02,
       -3.98534397e-03, -2.64821518e-02, -2.07227968e-05, 1.66328775e-03,
       -4.31623403e-03, -3.18395533e-03, 1.09906420e-02, -1.44220758e-02,
       6.49899850e-03, -1.70211028e-02, -2.69710049e-02, -1.15746679e-02,
       -8.71703960e-04, -1.01048471e-02, -4.22105305e-02,
       -1.10800052e-02, 6.39201049e-03, -1.58667844e-02, 4.23937179e-02,
       6.45873696e-03, 8.69199354e-03, 1.57505311e-02, 3.61229852e-02,
       -1.68753490e-02, 1.25505505e-02, 3.14730289e-03, -4.75533167e-03,
       3.47226337e-02, 6.04059733e-03, -2.57285070e-02, 1.02331266e-02,
       1.23775639e-02, -2.24129297e-02, 3.62980850e-02, 1.86892729e-02,
       -3.01137823e-03, 4.85427678e-03, -1.77708603e-02, 2.05801725e-02,
       2.40680072e-02, 1.31804578e-03, -5.99046275e-02, -2.05687061e-02,
       1.47918798e-03, -1.60723589e-02, 8.85811448e-03, 1.54854916e-02,
       -8.63854308e-04, 3.86139117e-02, -1.30176721e-02, -4.10443433e-02,
       -3.84809487e-02, -9.78515111e-03, 4.19021305e-03, 3.13733220e-02,
       2.11497881e-02, 7.77620636e-03, 2.03286353e-02, 6.71936423e-02,
       1.15806405e-02, 2.23682001e-02, 1.03577096e-02, 2.14469479e-03,
       3.87783255e-03, -1.22328168e-02, -9.38712806e-03, -1.26524586e-02,
       6.51602168e-03, -6.20702328e-03, -1.14957783e-02, -1.03164958e-02,
       -3.05172317e-02, 1.81341376e-02, 1.21077206e-02, 8.73511191e-03,
       5.06080352e-02, 6.03326671e-02, 7.09203014e-04, -1.63215175e-02,
       -1.81372184e-02, -2.05361471e-02, 1.48384115e-02, -3.82999741e-02,
       -2.90191034e-03, -1.48699582e-02, 1.96144450e-02, -2.91309059e-02,
       -8.38646479e-03, -2.21801382e-02, 3.01652253e-02, 4.38577570e-02,
       1.62849529e-03, 1.80896968e-02, 6.28004456e-03, -7.77358189e-03,
       -6.01962907e-03, -7.12485425e-03, 5.85166086e-03, 2.34630704e-03,
       2.67649554e-02, -1.28445802e-02, 2.62644538e-03, -2.02502329e-02,
       -5.81980590e-03, -2.13079285e-02, -1.13190934e-02,
       -4.08439152e-03, 7.81267823e-04, 2.53196489e-02, -2.80256812e-02,
       6.26888638e-03, -1.57572515e-02, -2.42566466e-02, -3.85248438e-02,
       -7.65005546e-03, -5.68254013e-03, -1.64883472e-02,
       -8.84115696e-03, -2.22902820e-02, 2.22092727e-04, -1.76227465e-02,
       2.48326710e-03, -3.36248102e-03, -1.37518775e-02, -1.89493876e-02,
       7.88273988e-04, 3.74005884e-02, 7.88358302e-05, 5.48937405e-03,
       -5.38688619e-03, 5.64358721e-04, -8.89547821e-03, -1.81149840e-02,
       -1.70277897e-02, -2.82862526e-03, 1.01127652e-02, 7.81726930e-03,
       9.21834912e-03, -1.84433302e-03, -8.80809408e-03, -5.72553091e-03,
       -1.26979202e-02, -3.33571509e-02, -1.89751703e-02,
       -1.21111795e-02, -4.78410814e-03, 8.52793083e-03, -1.46035627e-02,
       5.37901223e-02, 5.53248497e-03, -7.65621196e-03, -3.89171429e-02,
       -1.71936490e-02, -1.95938256e-02, -3.23313437e-02, 1.85637958e-02,
       -6.01618271e-03, 2.04929132e-02, -3.43986377e-02, -3.83339138e-05,
       -3.12677771e-02, 9.69586521e-03, 1.27982907e-02, -1.70605001e-03,
       3.23826894e-02, -2.98579852e-03, -5.23469120e-04, 2.87748571e-03,
       1.04375854e-02, 1.32371597e-02, -1.34219499e-02, -6.73272240e-04,
       -2.24846508e-02, -4.45730053e-03, -2.30005980e-02, 3.66552733e-03,
       -1.69464517e-02, -9.75614786e-03, -8.02857149e-03, 3.28173339e-02,
       -9.24773235e-03, -2.52395235e-02, 2.28676572e-02, -1.37634557e-02,
       1.05725424e-02, -2.13344265e-02, 1.19477194e-02, -1.54767698e-02,
       -3.06317816e-03, -1.08399577e-02, -1.09915324e-02,
       -8.68946034e-03, 5.43645630e-03, -2.71745175e-02, -5.56443669e-02,
       -2.03847606e-02, -2.18893159e-02, -9.64299683e-03, 3.06853727e-02,
       1.13602178e-02, 2.48945020e-02, 1.79783162e-02, 2.85462961e-02,
       1.95478965e-02, -4.15347796e-03, -8.84599052e-03, -2.22568400e-02,
       -4.03874880e-03, -2.12325472e-02, -1.54470308e-02,
       -3.56007414e-03, 4.75183129e-02, 2.44691856e-02, -2.17379560e-03,
       -3.24212350e-02, -9.45226196e-03, -4.01449972e-04,
       -1.33387484e-02, 1.34896269e-04, -6.71672914e-03, 1.82231776e-02,
       -2.68213972e-02, -1.79686900e-02, -2.21813731e-02,
       -7.77893141e-03, -1.03273680e-02, -1.27172023e-02,
       -3.82150710e-02, -2.04510745e-02, 2.40199044e-02, 1.17225703e-02,
       -8.57203174e-03, -2.73306351e-02, -5.82765974e-03, 7.63580529e-03,
       6.94883987e-03, 1.26006054e-02, 3.95419002e-02, 4.87546287e-02,
       1.81339327e-02, 1.92419125e-03, -6.63349964e-03, -2.15006527e-02,
       -1.54492501e-02, -2.43972223e-02, 9.06382408e-03, 5.37632219e-03,
       3.04101072e-02, -2.86155939e-02, -1.57539416e-02, -2.78887562e-02,
       1.26496507e-02, 7.15500116e-03, -7.52450945e-03, 1.78441044e-03,
       7.43759936e-03, 2.09224392e-02, 1.25604784e-02, -6.96675899e-03,
       -2.52533741e-02, -9.62907332e-04, -1.19693102e-02,
       -4.98734824e-02, -9.72739793e-03, 9.22538748e-04, -3.05285491e-02,
       -1.50174992e-02, -2.79272404e-02, -1.81558784e-02, 1.89007167e-02,
       2.30954401e-02, 6.17338298e-03, 3.20188217e-02, 2.66977344e-02,
       4.75350954e-02, 2.47813053e-02, 2.37778872e-02, 1.83359515e-02,
       1.33798299e-02, 1.61990095e-02, 7.38872448e-03, 7.48213846e-03,
       -2.10768380e-03, 1.89446602e-02, 2.46281382e-02, 3.27647128e-03,
       -1.37417461e-03, 1.59784518e-02, -6.24524197e-03, -3.25469188e-02,
       -3.02267894e-02, 4.97814268e-03, 4.09623934e-03, 2.84678098e-02,
       9.29062441e-03, 5.55834314e-03, 5.90343680e-03, 3.04887146e-02,
       -4.46289498e-03, -4.55835350e-02, 3.41569819e-03, -2.30420828e-02,
       -2.81570759e-03, -2.66379565e-02, -2.72471830e-02, 1.89471617e-02,
       2.42356081e-02, 2.14989181e-03, 6.62318943e-03, -1.44671137e-02,
       1.51033243e-02, 1.37684364e-02, 1.64792668e-02, -2.82219052e-03,
       -1.38461841e-02, -5.00197848e-03, -1.41983265e-02, 2.57099271e-02,
       -8.57332908e-03, 2.00237241e-02, 1.90654919e-02, -4.68503078e-03,
       -2.56948322e-02, 2.20669201e-03, 2.98031885e-02, -1.65223721e-02,
       -2.11533736e-02, 4.31003794e-03, -1.07846374e-03, 3.04324236e-02,
       1.37479906e-03, -1.88036896e-02, -3.19725685e-02, -3.70091274e-02,
       -3.13900746e-02, -1.87763525e-03, 2.82581989e-03, 1.42294606e-02,
       5.11458982e-03, -8.84713512e-03, -1.36818988e-02, 1.33158721e-03,
       4.01793368e-05, 6.74052117e-03, 8.78295489e-03, -2.39865910e-02,
       -9.88009386e-03, -1.86828733e-03, -2.96469741e-02,
       -8.37843679e-03, 1.13577284e-02, -2.08639577e-02, 3.00463047e-02,
       5.89815108e-03, -3.98159623e-02, -1.10879876e-02, -4.98077460e-03,
       -6.17386363e-02, 8.97450745e-03, 1.14269890e-02, -1.83344055e-02,
       -1.84682570e-02, -1.55876270e-02, -2.62482055e-02, 1.36181992e-02,
       -1.31670218e-02, 2.07155198e-03, 2.56832782e-02, 5.07658459e-02,
       3.39428359e-03, 2.41847225e-02, -2.77271331e-03, -3.28061804e-02,
       3.58140212e-03, -2.08771182e-03, -2.75217127e-02, 3.95665020e-02,
       -7.76163757e-01 ]
